digraph Tree {
node [shape=box] ;
0 [label="X[6] <= 32.5\ngini = 0.493\nsamples = 369\nvalue = [163, 206]\nclass = bath"] ;
1 [label="X[5] <= 1072.5\ngini = 0.424\nsamples = 226\nvalue = [157, 69]\nclass = beds"] ;
0 -> 1 [labeldistance=2.5, labelangle=45, headlabel="True"] ;
2 [label="X[3] <= 1976.0\ngini = 0.491\nsamples = 90\nvalue = [39, 51]\nclass = bath"] ;
1 -> 2 ;
3 [label="X[4] <= 1068.0\ngini = 0.431\nsamples = 54\nvalue = [37, 17]\nclass = beds"] ;
2 -> 3 ;
4 [label="gini = 0.165\nsamples = 33\nvalue = [30, 3]\nclass = beds"] ;
3 -> 4 ;
5 [label="gini = 0.444\nsamples = 21\nvalue = [7, 14]\nclass = bath"] ;
3 -> 5 ;
6 [label="X[6] <= 0.5\ngini = 0.105\nsamples = 36\nvalue = [2, 34]\nclass = bath"] ;
2 -> 6 ;
7 [label="gini = 0.0\nsamples = 1\nvalue = [1, 0]\nclass = beds"] ;
6 -> 7 ;
8 [label="gini = 0.056\nsamples = 35\nvalue = [1, 34]\nclass = bath"] ;
6 -> 8 ;
9 [label="X[5] <= 1471.0\ngini = 0.23\nsamples = 136\nvalue = [118, 18]\nclass = beds"] ;
1 -> 9 ;
10 [label="X[3] <= 1999.5\ngini = 0.392\nsamples = 56\nvalue = [41, 15]\nclass = beds"] ;
9 -> 10 ;
11 [label="gini = 0.149\nsamples = 37\nvalue = [34, 3]\nclass = beds"] ;
10 -> 11 ;
12 [label="gini = 0.465\nsamples = 19\nvalue = [7, 12]\nclass = bath"] ;
10 -> 12 ;
13 [label="X[6] <= 1.0\ngini = 0.072\nsamples = 80\nvalue = [77, 3]\nclass = beds"] ;
9 -> 13 ;
14 [label="gini = 0.0\nsamples = 1\nvalue = [0, 1]\nclass = bath"] ;
13 -> 14 ;
15 [label="gini = 0.049\nsamples = 79\nvalue = [77, 2]\nclass = beds"] ;
13 -> 15 ;
16 [label="X[6] <= 40.0\ngini = 0.08\nsamples = 143\nvalue = [6, 137]\nclass = bath"] ;
0 -> 16 [labeldistance=2.5, labelangle=-45, headlabel="False"] ;
17 [label="X[4] <= 1326.0\ngini = 0.444\nsamples = 15\nvalue = [5, 10]\nclass = bath"] ;
16 -> 17 ;
18 [label="X[3] <= 1921.5\ngini = 0.469\nsamples = 8\nvalue = [5, 3]\nclass = beds"] ;
17 -> 18 ;
19 [label="gini = 0.0\nsamples = 2\nvalue = [0, 2]\nclass = bath"] ;
18 -> 19 ;
20 [label="gini = 0.278\nsamples = 6\nvalue = [5, 1]\nclass = beds"] ;
18 -> 20 ;
21 [label="gini = 0.0\nsamples = 7\nvalue = [0, 7]\nclass = bath"] ;
17 -> 21 ;
22 [label="X[2] <= 432000.0\ngini = 0.016\nsamples = 128\nvalue = [1, 127]\nclass = bath"] ;
16 -> 22 ;
23 [label="X[2] <= 357500.0\ngini = 0.5\nsamples = 2\nvalue = [1, 1]\nclass = beds"] ;
22 -> 23 ;
24 [label="gini = 0.0\nsamples = 1\nvalue = [0, 1]\nclass = bath"] ;
23 -> 24 ;
25 [label="gini = 0.0\nsamples = 1\nvalue = [1, 0]\nclass = beds"] ;
23 -> 25 ;
26 [label="gini = 0.0\nsamples = 126\nvalue = [0, 126]\nclass = bath"] ;
22 -> 26 ;
}